{"gradients/fc_out.bias":{"bins":[-0.006874702405184507,-0.006706875283271074,-0.006539047695696354,-0.006371220573782921,-0.006203393451869488,-0.006035565864294767,-0.005867738742381334,-0.005699911620467901,-0.005532084032893181,-0.005364256910979748,-0.005196429789066315,-0.005028602201491594,-0.004860775079578161,-0.004692947957664728,-0.004525120370090008,-0.004357293248176575,-0.004189466126263142,-0.004021638538688421,-0.003853811416774988,-0.0036859840620309114,-0.0035181567072868347,-0.0033503295853734016,-0.003182502230629325,-0.003014674875885248,-0.002846847753971815,-0.0026790203992277384,-0.0025111930444836617,-0.002343365689739585,-0.002175538567826152,-0.002007711213082075,-0.0018398839747533202,-0.0016720566200092435,-0.0015042296145111322,-0.0013364023761823773,-0.0011685750214383006,-0.0010007477831095457,-0.0008329204865731299,-0.0006650931900367141,-0.0004972659517079592,-0.00032943865517154336,-0.00016161135863512754,6.215923349373043e-06,0.00017404320533387363,0.000341870472766459,0.0005096977693028748,0.0006775250658392906,0.0008453523041680455,0.0010131796589121222,0.0011810068972408772,0.001348834135569632,0.0015166614903137088,0.0016844887286424637,0.0018523160833865404,0.0020201432052999735,0.00218797056004405,0.002355797914788127,0.0025236252695322037,0.0026914523914456367,0.0028592797461897135,0.00302710710093379,0.0031949342228472233,0.0033627615775913,0.0035305889323353767,0.00369841605424881,0.0038662434089928865],"_type":"histogram","values":[1,0,0,0,0,0,0,0,0,0,0,0,0,0,0,0,0,0,0,0,0,0,0,0,0,0,0,0,0,0,0,0,0,0,0,0,0,0,0,0,0,0,0,0,0,0,0,0,0,0,0,0,0,0,0,0,0,0,0,0,0,0,0,1]},"epoch":20,"parameters/conv1.weight":{"_type":"histogram","values":[2,2,3,4,4,3,11,4,7,4,9,3,9,7,9,9,5,8,11,3,5,14,7,8,14,10,13,13,14,12,14,20,93,14,9,9,8,10,16,11,11,15,9,12,7,4,10,4,4,4,7,1,5,6,5,3,8,5,6,7,4,3,3,2],"bins":[-0.3692743182182312,-0.3578040599822998,-0.3463338315486908,-0.3348635733127594,-0.3233933448791504,-0.311923086643219,-0.30045285820961,-0.2889825999736786,-0.2775123715400696,-0.2660421133041382,-0.2545718550682068,-0.24310162663459778,-0.23163136839866638,-0.22016112506389618,-0.20869088172912598,-0.19722063839435577,-0.18575039505958557,-0.17428015172481537,-0.16280990839004517,-0.15133966505527496,-0.13986942172050476,-0.12839916348457336,-0.11692892014980316,-0.10545867681503296,-0.09398843348026276,-0.08251819014549255,-0.07104794681072235,-0.05957769602537155,-0.04810745269060135,-0.036637209355831146,-0.025166962295770645,-0.013696717098355293,-0.0022264719009399414,0.00924377329647541,0.020714018493890762,0.03218426555395126,0.043654508888721466,0.05512475222349167,0.06659500300884247,0.07806524634361267,0.08953548967838287,0.10100573301315308,0.11247597634792328,0.12394622713327408,0.13541647791862488,0.14688672125339508,0.15835696458816528,0.16982720792293549,0.1812974512577057,0.1927676945924759,0.2042379379272461,0.2157081812620163,0.2271784245967865,0.2386486828327179,0.2501189112663269,0.2615891695022583,0.2730594277381897,0.2845296561717987,0.2959999144077301,0.3074701428413391,0.3189404010772705,0.3304106295108795,0.3418808877468109,0.3533511161804199,0.3648213744163513]},"learning_rate":1e-05,"gradients/fc_out.weight":{"_type":"histogram","values":[1,0,0,0,0,0,0,0,0,0,0,0,1,0,1,1,0,0,0,0,1,2,1,0,0,0,1,0,2,1,1,1,3,3,2,1,3,6,0,2,0,2,4,10,5,6,6,10,22,69,21,15,7,9,8,5,4,5,2,4,5,1,1,1],"bins":[-0.007818805985152721,-0.007661057636141777,-0.00750330975279212,-0.007345561403781176,-0.007187813054770231,-0.007030065171420574,-0.00687231682240963,-0.0067145684733986855,-0.006556820124387741,-0.006399072241038084,-0.00624132389202714,-0.006083575543016195,-0.005925827659666538,-0.005768079310655594,-0.0056103309616446495,-0.0054525830782949924,-0.005294834729284048,-0.005137086380273104,-0.004979338496923447,-0.004821590147912502,-0.004663841798901558,-0.004506093915551901,-0.0043483455665409565,-0.004190597217530012,-0.004032849334180355,-0.0038751009851694107,-0.0037173526361584663,-0.0035596045199781656,-0.003401856403797865,-0.0032441080547869205,-0.00308635993860662,-0.0029286115895956755,-0.002770863939076662,-0.0026131158228963614,-0.002455367473885417,-0.0022976193577051163,-0.002139871008694172,-0.001982122892513871,-0.0018243747763335705,-0.001666626543737948,-0.0015088783111423254,-0.0013511300785467029,-0.0011933818459510803,-0.0010356337297707796,-0.0008778854971751571,-0.0007201372645795345,-0.0005623890901915729,-0.0004046408866997808,-0.00024689268320798874,-8.914447971619666e-05,6.860372377559543e-05,0.0002263519272673875,0.0003841001307591796,0.0005418483633548021,0.0006995965377427638,0.0008573447121307254,0.001015092944726348,0.0011728411773219705,0.001330589409917593,0.0014883375260978937,0.0016460857586935163,0.0018038339912891388,0.0019615821074694395,0.002119330456480384,0.0022770785726606846]},"parameters/fc2.bias":{"_type":"histogram","values":[2,1,0,1,1,2,0,6,0,1,0,1,3,4,3,3,1,2,0,5,2,2,3,3,1,5,4,5,3,4,2,3,4,4,6,3,6,2,2,2,3,2,0,3,0,0,1,2,1,3,1,0,1,2,0,0,1,1,2,0,1,1,0,1],"bins":[-0.10343016684055328,-0.09847734868526459,-0.09352453052997589,-0.0885717123746872,-0.0836188942193985,-0.0786660760641098,-0.0737132579088211,-0.06876043975353241,-0.06380762159824371,-0.05885480344295502,-0.05390198528766632,-0.048949167132377625,-0.04399634897708893,-0.03904353082180023,-0.034090712666511536,-0.02913789451122284,-0.024185076355934143,-0.019232258200645447,-0.01427944004535675,-0.009326621890068054,-0.004373803734779358,0.0005790144205093384,0.005531832575798035,0.010484650731086731,0.015437468886375427,0.020390287041664124,0.02534310519695282,0.030295923352241516,0.03524874150753021,0.04020155966281891,0.045154377818107605,0.0501071959733963,0.05506002902984619,0.06001284718513489,0.06496566534042358,0.06991848349571228,0.07487130165100098,0.07982411980628967,0.08477693796157837,0.08972975611686707,0.09468257427215576,0.09963539242744446,0.10458821058273315,0.10954102873802185,0.11449384689331055,0.11944666504859924,0.12439948320388794,0.12935230135917664,0.13430511951446533,0.13925793766975403,0.14421075582504272,0.14916357398033142,0.15411639213562012,0.1590692102909088,0.1640220284461975,0.1689748466014862,0.1739276647567749,0.1788804829120636,0.1838333010673523,0.188786119222641,0.1937389373779297,0.19869175553321838,0.20364457368850708,0.20859739184379578,0.21355020999908447]},"_timestamp":1.7487353441542163e+09,"gradients/conv1.bias":{"values":[1,0,0,0,1,0,0,0,0,2,0,0,2,2,1,0,1,2,3,0,3,2,22,3,0,2,1,0,0,0,0,1,0,0,1,0,0,1,0,1,0,1,3,0,0,1,1,0,1,1,0,0,0,0,0,1,1,0,0,0,1,0,0,1],"bins":[-0.0012986017391085625,-0.0012399102561175823,-0.0011812186567112803,-0.0011225270573049784,-0.0010638355743139982,-0.001005144091323018,-0.0009464524919167161,-0.000887760950718075,-0.000829069409519434,-0.0007703778683207929,-0.0007116863271221519,-0.0006529947859235108,-0.0005943032447248697,-0.0005356117035262287,-0.0004769201623275876,-0.00041822862112894654,-0.0003595370799303055,-0.0003008455387316644,-0.00024215399753302336,-0.0001834624563343823,-0.00012477091513574123,-6.607937393710017e-05,-7.38783273845911e-06,5.130370846018195e-05,0.00010999524965882301,0.00016868679085746408,0.00022737833205610514,0.0002860698732547462,0.00034476141445338726,0.0004034529556520283,0.0004621444968506694,0.0005208360380493104,0.0005795275792479515,0.0006382191204465926,0.0006969106616452336,0.0007556022028438747,0.0008142937440425158,0.0008729852852411568,0.0009316768264397979,0.0009903684258460999,0.00104905990883708,0.0011077513918280602,0.0011664429912343621,0.001225134590640664,0.0012838260736316442,0.0013425175566226244,0.0014012091560289264,0.0014599007554352283,0.0015185922384262085,0.0015772837214171886,0.0016359753208234906,0.0016946669202297926,0.0017533584032207727,0.0018120498862117529,0.0018707414856180549,0.0019294330850243568,0.001988124568015337,0.002046816051006317,0.0021055075339972973,0.002164199249818921,0.0022228907328099012,0.0022815822158008814,0.002340273931622505,0.0023989654146134853,0.0024576568976044655],"_type":"histogram"},"_step":19,"gradients/fc1.weight":{"_type":"histogram","values":[2,0,1,3,4,8,2,8,13,12,15,24,18,15,27,20,35,39,52,73,80,97,142,221,206,271,315,385,510,674,812,1048,1454,2035,2704,4451,5768,7635,13805,22417,50120,7.550073e+06,144419,27727,12000,6276,3150,1834,1127,701,513,340,225,124,87,45,43,43,25,15,14,9,7,2],"bins":[-0.00021168700186535716,-0.00020663536270149052,-0.00020158370898570865,-0.00019653206982184201,-0.00019148041610606015,-0.0001864287769421935,-0.00018137713777832687,-0.000176325484062545,-0.00017127384489867836,-0.0001662221911828965,-0.00016117055201902986,-0.00015611891285516322,-0.00015106725913938135,-0.0001460156199755147,-0.00014096396625973284,-0.0001359123270958662,-0.00013086068793199956,-0.0001258090342162177,-0.00012075738777639344,-0.0001157057486125268,-0.00011065410217270255,-0.0001056024557328783,-0.00010055080929305404,-9.549916285322979e-05,-9.044751641340554e-05,-8.53958772495389e-05,-8.034423080971465e-05,-7.529258436989039e-05,-7.024093793006614e-05,-6.518929149024189e-05,-6.013764868839644e-05,-5.508600588655099e-05,-5.003435944672674e-05,-4.4982713006902486e-05,-3.993107020505704e-05,-3.4879423765232787e-05,-2.9827779144397937e-05,-2.4776134523563087e-05,-1.9724488083738834e-05,-1.4672843462903984e-05,-9.621198842069134e-06,-4.5695537664869335e-06,4.820913090952672e-07,5.533736384677468e-06,1.0585381460259669e-05,1.5637026081094518e-05,2.068867252091877e-05,2.574031714175362e-05,3.079196176258847e-05,3.5843608202412724e-05,4.089525100425817e-05,4.5946897444082424e-05,5.099854024592787e-05,5.6050186685752124e-05,6.110183312557638e-05,6.615347956540063e-05,7.120512600522488e-05,7.625676516909152e-05,8.130841160891578e-05,8.636005804874003e-05,9.141170448856428e-05,9.646335092838854e-05,0.00010151499009225518,0.00010656663653207943,0.00011161828297190368]},"train_loss":0.007663991597198055,"gradients/fc2.bias":{"bins":[-0.0011707233497872949,-0.0011448801960796118,-0.0011190369259566069,-0.0010931937722489238,-0.0010673506185412407,-0.0010415074648335576,-0.0010156643111258745,-0.0009898210410028696,-0.0009639778872951865,-0.0009381347335875034,-0.0009122915216721594,-0.0008864483097568154,-0.0008606051560491323,-0.0008347620023414493,-0.0008089187904261053,-0.0007830755785107613,-0.0007572324248030782,-0.0007313892710953951,-0.0007055460591800511,-0.0006797028472647071,-0.000653859693557024,-0.0006280165398493409,-0.0006021733279339969,-0.0005763301160186529,-0.0005504869623109698,-0.0005246438086032867,-0.0004988005966879427,-0.0004729574138764292,-0.00044711423106491566,-0.0004212710482534021,-0.00039542786544188857,-0.00036958468263037503,-0.00034374144161120057,-0.00031789825879968703,-0.0002920550759881735,-0.00026621189317665994,-0.0002403687103651464,-0.00021452552755363286,-0.0001886823447421193,-0.00016283916193060577,-0.00013699597911909223,-0.00011115279630757868,-8.530961349606514e-05,-5.94664306845516e-05,-3.3623247873038054e-05,-7.78006506152451e-06,1.8063117749989033e-05,4.3906300561502576e-05,6.974948337301612e-05,9.559266618452966e-05,0.0001214358489960432,0.00014727903180755675,0.0001731222146190703,0.00019896539743058383,0.00022480858024209738,0.0002506517630536109,0.00027649494586512446,0.000302338128676638,0.00032818131148815155,0.0003540244942996651,0.00037986767711117864,0.0004057108599226922,0.0004315540427342057,0.00045739722554571927,0.0004832404083572328],"_type":"histogram","values":[1,1,0,0,0,0,0,0,1,1,0,0,1,0,0,0,1,1,2,0,0,4,3,2,1,2,0,0,2,2,2,2,3,0,2,3,6,1,3,3,1,7,1,2,4,23,5,7,3,3,1,3,4,3,1,0,4,1,0,0,2,2,0,1]},"parameters/fc2.weight":{"_type":"histogram","values":[4,3,21,20,32,63,83,94,131,125,141,165,173,168,194,166,233,193,227,238,203,251,250,275,278,309,309,7094,516,310,287,280,268,243,214,250,227,214,226,197,181,182,182,189,169,143,140,104,108,92,60,24,38,18,16,14,18,8,12,6,0,2,2,1],"bins":[-0.104472815990448,-0.10073473304510117,-0.09699664264917374,-0.0932585597038269,-0.08952047675848007,-0.08578238636255264,-0.08204430341720581,-0.07830622047185898,-0.07456813752651215,-0.07083004713058472,-0.06709196418523788,-0.06335388123989105,-0.05961579084396362,-0.05587770789861679,-0.05213962122797966,-0.04840153828263283,-0.0446634516119957,-0.040925364941358566,-0.037187281996011734,-0.0334491953253746,-0.029711110517382622,-0.02597302570939064,-0.02223493903875351,-0.018496854230761528,-0.014758769422769547,-0.011020684614777565,-0.007282598875463009,-0.00354451360180974,0.00019357167184352875,0.0039316569454967976,0.007669742219150066,0.011407827958464622,0.015145912766456604,0.018883997574448586,0.022622082382440567,0.026360169053077698,0.03009825386106968,0.03383633866906166,0.03757442533969879,0.041312508285045624,0.045050594955682755,0.048788681626319885,0.05252676457166672,0.05626485124230385,0.06000293791294098,0.06374102085828781,0.06747910380363464,0.07121719419956207,0.0749552771449089,0.07869336009025574,0.08243145048618317,0.08616953343153,0.08990761637687683,0.09364570677280426,0.09738378971815109,0.10112187266349792,0.10485996305942535,0.10859804600477219,0.11233612895011902,0.11607421189546585,0.11981230229139328,0.12355038523674011,0.12728847563266754,0.13102655112743378,0.1347646415233612]},"parameters/conv1.bias":{"_type":"histogram","values":[1,0,0,0,0,1,0,1,3,0,2,3,1,2,3,1,2,3,2,3,3,2,6,1,1,0,2,1,0,1,0,0,1,1,0,1,0,1,2,1,0,0,0,0,1,1,0,0,1,1,0,1,0,0,0,1,1,0,0,2,1,0,0,2],"bins":[-0.1729709655046463,-0.16527678072452545,-0.1575826108455658,-0.14988842606544495,-0.1421942412853241,-0.13450007140636444,-0.1268058866262436,-0.11911170184612274,-0.11141752451658249,-0.10372334718704224,-0.09602916240692139,-0.08833498507738113,-0.08064080774784088,-0.07294662296772003,-0.06525244563817978,-0.05755826458334923,-0.04986408352851868,-0.042169902473688126,-0.034475721418857574,-0.026781544089317322,-0.01908736303448677,-0.011393182910978794,-0.0036990027874708176,0.003995177336037159,0.011689357459545135,0.019383538514375687,0.02707771770656109,0.03477189689874649,0.04246607795357704,0.05016025900840759,0.057854436337947845,0.0655486211180687,0.07324281334877014,0.0809369906783104,0.08863117545843124,0.0963253527879715,0.10401953756809235,0.1117137148976326,0.11940789222717285,0.1271020770072937,0.13479626178741455,0.1424904316663742,0.15018461644649506,0.1578788012266159,0.16557297110557556,0.1732671558856964,0.18096134066581726,0.18865551054477692,0.19634969532489777,0.20404388010501862,0.21173804998397827,0.21943223476409912,0.22712641954421997,0.23482058942317963,0.24251477420330048,0.25020894408226013,0.257903128862381,0.26559731364250183,0.2732914984226227,0.28098568320274353,0.2886798679828644,0.29637402296066284,0.3040682077407837,0.31176239252090454,0.3194565773010254]},"_runtime":701.003736602,"parameters/fc1.bias":{"_type":"histogram","values":[2,2,1,1,0,1,0,0,2,1,1,2,2,2,1,1,5,4,9,14,6,8,4,10,7,1,3,3,4,4,0,0,3,0,1,1,0,1,5,4,0,0,1,1,1,0,0,1,0,0,0,0,0,0,0,1,1,1,1,1,1,0,1,1],"bins":[-0.0040320404805243015,-0.003866499289870262,-0.0037009580992162228,-0.0035354166757315397,-0.0033698754850775003,-0.003204334294423461,-0.0030387931037694216,-0.002873251913115382,-0.002707710489630699,-0.0025421692989766598,-0.0023766281083226204,-0.002211086917668581,-0.0020455457270145416,-0.0018800044199451804,-0.001714463229291141,-0.0015489219222217798,-0.0013833807315677404,-0.001217839540913701,-0.0010522982338443398,-0.0008867570431903005,-0.0007212157943286002,-0.0005556745454668999,-0.00039013332570903003,-0.00022459209139924496,-5.9050857089459896e-05,0.00010649037722032517,0.00027203161153011024,0.0004375728312879801,0.0006031140801496804,0.0007686553290113807,0.0009341965196654201,0.0010997378267347813,0.0012652790173888206,0.00143082020804286,0.0015963615151122212,0.0017619027057662606,0.0019274440128356218,0.002092985203489661,0.0022585263941437006,0.00242406758479774,0.002589609008282423,0.0027551501989364624,0.002920691389590502,0.003086232580244541,0.0032517737708985806,0.00341731496155262,0.003582856385037303,0.0037483975756913424,0.003913938999176025,0.004079480189830065,0.004245021380484104,0.0044105625711381435,0.004576103761792183,0.004741644952446222,0.004907186143100262,0.005072727333754301,0.0052382685244083405,0.00540380971506238,0.005569350905716419,0.005734892562031746,0.005900433752685785,0.006065974943339825,0.006231516133993864,0.0063970573246479034,0.006562598515301943]},"gradients/fc1.bias":{"values":[1,0,0,0,1,0,0,0,0,0,0,0,0,0,0,0,0,1,0,0,1,1,0,1,0,1,0,1,0,0,1,1,0,1,1,1,0,0,0,0,1,2,101,0,0,0,3,0,0,4,2,0,0,0,0,0,0,0,1,0,0,0,0,1],"bins":[-0.0010116810444742441,-0.0009877512929961085,-0.0009638216579332948,-0.0009398919064551592,-0.0009159622131846845,-0.0008920325199142098,-0.0008681028266437352,-0.0008441731333732605,-0.0008202433818951249,-0.0007963136886246502,-0.0007723839953541756,-0.0007484543020837009,-0.0007245246088132262,-0.0007005949155427516,-0.000676665164064616,-0.0006527354707941413,-0.0006288057775236666,-0.000604876084253192,-0.0005809463909827173,-0.0005570166395045817,-0.000533086946234107,-0.0005091572529636323,-0.00048522755969315767,-0.00046129783731885254,-0.00043736814404837787,-0.0004134384507779032,-0.00038950872840359807,-0.0003655790351331234,-0.0003416493418626487,-0.0003177196194883436,-0.0002937899262178689,-0.0002698602038435638,-0.0002459305105730891,-0.00022200080275069922,-0.00019807109492830932,-0.00017414140165783465,-0.00015021169383544475,-0.00012628198601305485,-0.00010235228546662256,-7.842258492019027e-05,-5.4492877097800374e-05,-3.056317291338928e-05,-6.633468728978187e-06,1.7296235455432907e-05,4.1225939639844e-05,6.51556474622339e-05,8.908534800866619e-05,0.00011301504855509847,0.00013694475637748837,0.00016087446419987828,0.00018480417202226818,0.00020873386529274285,0.00023266357311513275,0.00025659328093752265,0.0002805229742079973,0.00030445269658230245,0.0003283823898527771,0.0003523120831232518,0.0003762418054975569,0.0004001714987680316,0.00042410119203850627,0.0004480309144128114,0.00047196060768328607,0.0004958903300575912,0.0005198200233280659],"_type":"histogram"},"gradients/conv1.weight":{"values":[1,0,0,0,0,1,1,0,0,1,2,16,21,16,32,42,247,36,24,12,11,8,12,4,7,7,5,7,9,4,4,1,2,1,3,2,0,1,1,2,3,2,3,1,2,2,3,1,0,2,1,2,1,0,0,2,0,1,1,0,1,2,2,1],"bins":[-0.00012954729027114809,-0.00012182872160337865,-0.00011411015293560922,-0.00010639158426783979,-9.867301560007036e-05,-9.095444693230093e-05,-8.323587826453149e-05,-7.551730959676206e-05,-6.779874092899263e-05,-6.00801722612232e-05,-5.2361603593453765e-05,-4.464303492568433e-05,-3.69244662579149e-05,-2.920589759014547e-05,-2.1487328922376037e-05,-1.3768760254606605e-05,-6.0501915868371725e-06,1.6683770809322596e-06,9.386945748701692e-06,1.7105514416471124e-05,2.4824083084240556e-05,3.254265175200999e-05,4.026122041977942e-05,4.797978908754885e-05,5.5698357755318284e-05,6.341692642308772e-05,7.113549509085715e-05,7.885406375862658e-05,8.657263242639601e-05,9.429120109416544e-05,0.00010200976976193488,0.00010972833842970431,0.0001174469362013042,0.00012516550486907363,0.00013288407353684306,0.0001406026422046125,0.00014832121087238193,0.00015603977954015136,0.0001637583482079208,0.00017147691687569022,0.00017919548554345965,0.00018691405421122909,0.00019463262287899852,0.00020235119154676795,0.00021006976021453738,0.00021778832888230681,0.00022550689755007625,0.00023322546621784568,0.0002409440348856151,0.00024866260355338454,0.000256381172221154,0.0002640997408889234,0.00027181830955669284,0.00027953687822446227,0.0002872554468922317,0.00029497401556000113,0.00030269258422777057,0.00031041115289554,0.00031812972156330943,0.00032584829023107886,0.0003335668588988483,0.00034128542756661773,0.00034900399623438716,0.0003567225649021566,0.000364441133569926],"_type":"histogram"},"parameters/conv2.bias":{"values":[1,0,0,0,1,1,0,0,1,1,0,2,1,0,1,0,0,0,4,1,0,1,0,1,2,3,0,1,3,9,0,1,0,1,1,0,1,2,2,0,3,0,0,1,0,0,1,0,1,1,0,1,1,3,1,1,1,2,1,2,0,1,0,1],"bins":[-0.035262178629636765,-0.03406355902552605,-0.03286493942141533,-0.03166631981730461,-0.030467698350548744,-0.029269078746438026,-0.02807045914232731,-0.02687183953821659,-0.025673218071460724,-0.024474598467350006,-0.02327597886323929,-0.02207735925912857,-0.020878739655017853,-0.019680120050907135,-0.018481498584151268,-0.01728287898004055,-0.016084259375929832,-0.014885639771819115,-0.013687019236385822,-0.012488399632275105,-0.011289779096841812,-0.010091159492731094,-0.008892539888620377,-0.0076939198188483715,-0.006495299749076366,-0.005296679679304361,-0.004098059609532356,-0.0028994400054216385,-0.0017008199356496334,-0.0005021999822929502,0.0006964199710637331,0.0018950399244204164,0.0030936598777770996,0.004292279947549105,0.00549090001732111,0.0066895196214318275,0.00788814015686512,0.009086759760975838,0.010285379365086555,0.011483999900519848,0.012682619504630566,0.013881239108741283,0.015079859644174576,0.016278479248285294,0.01747709885239601,0.01867571845650673,0.019874339923262596,0.021072959527373314,0.02227157913148403,0.02347019873559475,0.024668818339705467,0.025867439806461334,0.027066059410572052,0.02826467901468277,0.029463298618793488,0.030661918222904205,0.03186053782701492,0.03305915743112564,0.03425777703523636,0.035456400364637375,0.03665501996874809,0.03785363957285881,0.03905225917696953,0.040250878781080246,0.041449498385190964],"_type":"histogram"},"test_loss":0.0030264183138073845,"parameters/fc_out.bias":{"_type":"histogram","values":[1,0,0,0,0,0,0,0,0,0,0,0,0,0,0,0,0,0,0,0,0,0,0,0,0,0,0,0,0,0,0,0,0,0,0,0,0,0,0,0,0,0,0,0,0,0,0,0,0,0,0,0,0,0,0,0,0,0,0,0,0,0,0,1],"bins":[-0.05050837993621826,-0.04971739277243614,-0.04892640560865402,-0.0481354184448719,-0.04734443128108978,-0.04655344411730766,-0.04576245695352554,-0.04497146978974342,-0.044180482625961304,-0.043389495462179184,-0.042598508298397064,-0.04180752485990524,-0.04101653769612312,-0.040225550532341,-0.039434563368558884,-0.038643576204776764,-0.037852589040994644,-0.037061601877212524,-0.036270614713430405,-0.035479627549648285,-0.034688640385866165,-0.033897653222084045,-0.033106666058301926,-0.032315678894519806,-0.031524691730737686,-0.030733704566955566,-0.029942717403173447,-0.029151732102036476,-0.028360744938254356,-0.027569757774472237,-0.026778770610690117,-0.025987783446907997,-0.025196794420480728,-0.02440580725669861,-0.02361482009291649,-0.022823834791779518,-0.0220328476279974,-0.02124186046421528,-0.02045087330043316,-0.01965988613665104,-0.01886889897286892,-0.0180779118090868,-0.01728692464530468,-0.01649593748152256,-0.01570495031774044,-0.014913964085280895,-0.014122976921498775,-0.013331989757716656,-0.01254100352525711,-0.01175001636147499,-0.010959029197692871,-0.010168042033910751,-0.009377054870128632,-0.008586068637669086,-0.007795081008225679,-0.007004094310104847,-0.006213107146322727,-0.005422120448201895,-0.004631133284419775,-0.003840146353468299,-0.003049159189686179,-0.002258172258734703,-0.001467185327783227,-0.00067619833862409,0.00011478865781100467]},"parameters/conv2.weight":{"_type":"histogram","values":[1,1,0,1,1,2,2,3,0,0,4,9,15,17,38,56,252,428,529,561,610,652,681,753,812,893,874,1173,18765,1257,973,817,755,702,719,727,650,644,676,598,310,180,154,141,104,93,49,57,39,15,16,16,9,9,4,2,3,3,2,4,1,0,0,2],"bins":[-0.10139650106430054,-0.09787319600582123,-0.09434989094734192,-0.09082658588886261,-0.0873032808303833,-0.08377997577190399,-0.08025667071342468,-0.07673336565494537,-0.07321006059646606,-0.06968674808740616,-0.06616344302892685,-0.06264013797044754,-0.05911683291196823,-0.05559352785348892,-0.05207022279500961,-0.048546917736530304,-0.045023612678050995,-0.041500307619571686,-0.03797700256109238,-0.03445369750261307,-0.03093039058148861,-0.0274070855230093,-0.023883778601884842,-0.020360473543405533,-0.016837168484926224,-0.013313863426446915,-0.009790557436645031,-0.006267251912504435,-0.002743946388363838,0.0007793591357767582,0.004302664659917355,0.007825970649719238,0.01134926825761795,0.01487257331609726,0.01839587837457657,0.021919185295701027,0.025442490354180336,0.028965795412659645,0.0324891023337841,0.03601240739226341,0.03953571245074272,0.04305901750922203,0.04658232256770134,0.05010562762618065,0.053628936409950256,0.057152241468429565,0.060675546526908875,0.06419885158538818,0.06772215664386749,0.0712454617023468,0.07476876676082611,0.07829207181930542,0.08181537687778473,0.08533868193626404,0.08886198699474335,0.09238529205322266,0.09590859711170197,0.09943190962076187,0.10295521467924118,0.10647851973772049,0.1100018247961998,0.11352512985467911,0.11704843491315842,0.12057173997163773,0.12409504503011703]},"gradients/fc2.weight":{"values":[1,0,0,0,0,2,0,1,4,0,2,2,0,2,4,4,3,8,11,16,11,19,33,47,39,88,95,96,149,219,333,14123,294,193,138,84,56,55,43,35,20,29,15,17,13,14,15,14,11,4,4,0,3,2,4,2,1,2,2,1,0,0,0,1],"bins":[-0.0013655362417921424,-0.0013216116931289434,-0.0012776872608810663,-0.0012337627122178674,-0.0011898382799699903,-0.0011459137313067913,-0.0011019891826435924,-0.0010580647503957152,-0.0010141402017325163,-0.0009702157112769783,-0.0009262912208214402,-0.0008823667303659022,-0.0008384422399103642,-0.0007945177494548261,-0.0007505932007916272,-0.0007066687103360891,-0.0006627442198805511,-0.0006188197294250131,-0.000574895238969475,-0.0005309706903062761,-0.00048704619985073805,-0.0004431217093952,-0.000399197218939662,-0.0003552726993802935,-0.00031134820892475545,-0.0002674237184692174,-0.00022349919890984893,-0.0001795747084543109,-0.00013565020344685763,-9.172569843940437e-05,-4.780120070790872e-05,-3.876699338434264e-06,4.004780203104019e-05,8.397230703849345e-05,0.00012789681204594672,0.00017182130250148475,0.00021574580750893801,0.0002596703125163913,0.0003035948029719293,0.0003475193225312978,0.00039144381298683584,0.00043536830344237387,0.00047929282300174236,0.0005232173134572804,0.0005671418039128184,0.0006110662943683565,0.0006549908430315554,0.0006989153334870934,0.0007428398239426315,0.0007867643143981695,0.0008306888048537076,0.0008746133535169065,0.0009185378439724445,0.0009624623344279826,0.0010063868248835206,0.0010503113735467196,0.0010942358057945967,0.0011381603544577956,0.0011820847867056727,0.0012260093353688717,0.0012699338840320706,0.0013138583162799478,0.0013577828649431467,0.0014017072971910238,0.0014456318458542228],"_type":"histogram"},"parameters/fc1.weight":{"_type":"histogram","values":[1,0,1,2,1,3,3,4,3,5,8,15,23,27,53,76,94,109,125,202,267,333,463,660,932,1276,1899,2763,4101,6044,9138,13638,23124,209261,601822,6.112527e+06,602066,202581,32494,13840,8643,5945,3973,2362,1492,844,475,252,130,71,38,29,21,16,9,7,3,9,7,1,2,2,2,3],"bins":[-0.06475045531988144,-0.06292988359928131,-0.06110931187868118,-0.059288736432790756,-0.05746816471219063,-0.0556475929915905,-0.05382701754570007,-0.052006445825099945,-0.05018587410449982,-0.04836530238389969,-0.04654473066329956,-0.044724155217409134,-0.042903583496809006,-0.04108301177620888,-0.03926243633031845,-0.03744186460971832,-0.035621292889118195,-0.033800721168518066,-0.03198014944791794,-0.03015957400202751,-0.028339002281427383,-0.026518430560827255,-0.024697856977581978,-0.0228772833943367,-0.021056711673736572,-0.019236139953136444,-0.017415566369891167,-0.015594993717968464,-0.013774421066045761,-0.011953848414123058,-0.010133275762200356,-0.008312703110277653,-0.0064921267330646515,-0.004671554081141949,-0.002850981429219246,-0.0010304087772965431,0.0007901638746261597,0.0026107365265488625,0.004431309178471565,0.006251881830394268,0.00807245448231697,0.009893027134239674,0.011713599786162376,0.01353417243808508,0.015354745090007782,0.01717531681060791,0.018995890393853188,0.020816463977098465,0.022637035697698593,0.02445760741829872,0.026278181001544,0.028098754584789276,0.029919326305389404,0.03173989802598953,0.03356046974658966,0.03538104519248009,0.037201616913080215,0.039022188633680344,0.04084276407957077,0.0426633358001709,0.04448390752077103,0.046304479241371155,0.04812505096197128,0.04994562640786171,0.05176619812846184]},"_wandb":{"runtime":701},"gradients/conv2.bias":{"bins":[-0.0032256953418254852,-0.0031484845094382763,-0.0030712736770510674,-0.002994063077494502,-0.002916852245107293,-0.002839641412720084,-0.0027624305803328753,-0.00268521998077631,-0.002608009148389101,-0.002530798316001892,-0.002453587483614683,-0.002376376651227474,-0.002299166051670909,-0.0022219552192837,-0.002144744386896491,-0.002067533554509282,-0.001990322954952717,-0.001913112006150186,-0.001835901290178299,-0.00175869045779109,-0.001681479741819203,-0.001604268909431994,-0.0015270581934601068,-0.001449847361072898,-0.001372636528685689,-0.0012954258127138019,-0.001218214980326593,-0.0011410042643547058,-0.0010637934319674969,-0.0009865827159956098,-0.0009093718836084008,-0.0008321611094288528,-0.0007549504516646266,-0.0006777396774850786,-0.0006005289033055305,-0.0005233181291259825,-0.00044610732584260404,-0.000368896551663056,-0.00029168574837967753,-0.0002144749742001295,-0.00013726420002058148,-6.0053418565075845e-05,1.7157362890429795e-05,9.436814434593543e-05,0.00017157892580144107,0.0002487896999809891,0.0003260005032643676,0.0004032112774439156,0.00048042205162346363,0.0005576328258030117,0.0006348435999825597,0.0007120543741621077,0.0007892651483416557,0.0008664759807288647,0.0009436867549084127,0.0010208975290879607,0.0010981082450598478,0.0011753190774470568,0.0012525299098342657,0.0013297406258061528,0.0014069514581933618,0.0014841621741652489,0.0015613730065524578,0.001638583722524345,0.0017157945549115539],"_type":"histogram","values":[1,0,0,0,0,0,0,0,0,0,0,0,0,0,0,1,0,1,0,0,1,0,0,0,0,0,0,0,0,1,0,1,0,1,2,1,5,4,3,3,2,19,1,2,1,1,1,1,2,1,1,0,2,0,2,0,0,0,0,1,0,1,0,1]},"gradients/conv2.weight":{"_type":"histogram","values":[7,7,3,7,14,5,7,4,6,2,1,6,6,10,7,2,30,22,39,25,26,27,41,44,33,20,37,34,52,69,102,144,207,260,370,690,951,1678,26340,1990,943,561,424,320,269,224,148,107,101,61,80,46,42,39,35,33,26,22,18,15,10,9,4,2],"bins":[-0.0010514719178900123,-0.0010242628632113338,-0.0009970538085326552,-0.0009698446956463158,-0.0009426356409676373,-0.0009154265862889588,-0.0008882175316102803,-0.0008610084187239408,-0.0008337993640452623,-0.0008065903093665838,-0.0007793812546879053,-0.0007521722000092268,-0.0007249630871228874,-0.0006977540324442089,-0.0006705449777655303,-0.0006433359230868518,-0.0006161268102005124,-0.0005889177555218339,-0.0005617087008431554,-0.0005344996461644769,-0.0005072905914857984,-0.0004800815077032894,-0.0004528724239207804,-0.0004256633692421019,-0.0003984543145634234,-0.0003712452307809144,-0.0003440361761022359,-0.00031682709231972694,-0.00028961803764104843,-0.00026240895385853946,-0.00023519989917986095,-0.0002079908299492672,-0.00018078176071867347,-0.00015357269148807973,-0.00012636362225748599,-9.915456030284986e-05,-7.194549107225612e-05,-4.473642184166238e-05,-1.7527356249047443e-05,9.681711162556894e-06,3.689077857416123e-05,6.409984780475497e-05,9.130891703534871e-05,0.00011851797898998484,0.00014572704094462097,0.0001729361101752147,0.00020014517940580845,0.0002273542486364022,0.00025456331786699593,0.00028177237254567444,0.0003089814563281834,0.0003361905110068619,0.0003633995947893709,0.0003906086494680494,0.0004178177332505584,0.0004450267879292369,0.0004722358426079154,0.0004994448972865939,0.0005266540101729333,0.0005538630648516119,0.0005810721195302904,0.0006082811742089689,0.0006354902870953083,0.0006626993417739868,0.0006899083964526653]},"parameters/fc_out.weight":{"_type":"histogram","values":[1,0,0,0,0,0,0,1,0,2,1,0,2,5,5,2,7,2,2,1,1,4,1,8,9,3,5,6,7,10,4,9,7,6,8,7,3,6,17,10,7,6,5,6,3,7,8,5,6,5,4,4,6,1,3,4,5,5,0,3,0,0,0,1],"bins":[-0.18282945454120636,-0.1780439019203186,-0.17325834929943085,-0.1684727966785431,-0.16368722915649414,-0.15890167653560638,-0.15411612391471863,-0.14933057129383087,-0.14454501867294312,-0.13975946605205536,-0.1349738985300064,-0.13018834590911865,-0.1254027932882309,-0.12061724066734314,-0.11583168804645538,-0.11104612797498703,-0.10626057535409927,-0.10147502273321152,-0.09668946266174316,-0.09190391004085541,-0.08711835741996765,-0.0823327973484993,-0.07754724472761154,-0.07276169210672379,-0.06797613203525543,-0.06319057941436768,-0.05840502679347992,-0.053619470447301865,-0.04883391410112381,-0.04404836148023605,-0.039262805134058,-0.03447725251317024,-0.02969168871641159,-0.024906134232878685,-0.02012057974934578,-0.015335023403167725,-0.010549468919634819,-0.005763913970440626,-0.0009783590212464333,0.0038071959279477596,0.008592750877141953,0.013378305360674858,0.018163859844207764,0.02294941619038582,0.027734970673918724,0.03252052515745163,0.037306081503629684,0.04209163412451744,0.046877190470695496,0.05166274681687355,0.05644829943776131,0.06123385578393936,0.06601940840482712,0.07080496847629547,0.07559052109718323,0.08037607371807098,0.08516162633895874,0.0899471864104271,0.09473273903131485,0.0995182916522026,0.10430385172367096,0.10908940434455872,0.11387495696544647,0.11866051703691483,0.12344606965780258]}}